SVM-light Version V6.02
0 # kernel type
3 # kernel parameter -d 
1 # kernel parameter -g 
1 # kernel parameter -s 
1 # kernel parameter -r 
empty# kernel parameter -u 
2 # highest feature index 
1000 # number of training documents 
121 # number of support vectors plus 1 
3.0985402 # threshold b, each following line is a SV (starting with alpha*y)
-0.0018184041561453022275290924980595 1:0.12982801 2:11.553214 #
0.0018184041561453022275290924980595 1:10.784916 2:4.674428 #
-0.0018184041561453022275290924980595 1:6.5708299 2:7.513833 #
0.0018184041561453022275290924980595 1:8.37218 2:5.0609422 #
-0.0018184041561453022275290924980595 1:11.2721 2:0.082383998 #
0.0018184041561453022275290924980595 1:0.86860502 2:17.24132 #
-0.0018184041561453022275290924980595 1:1.031534 2:14.951612 #
0.0018184041561453022275290924980595 1:12.960735 2:0.701428 #
-0.0018184041561453022275290924980595 1:7.432786 2:6.1947212 #
0.0018184041561453022275290924980595 1:3.678242 2:12.20591 #
-0.0018184041561453022275290924980595 1:1.2696871 2:14.393827 #
0.0018184041561453022275290924980595 1:10.623815 2:1.907205 #
-0.0018184041561453022275290924980595 1:10.128455 2:0.85252303 #
0.0018184041561453022275290924980595 1:0.437601 2:18.863916 #
-0.0018184041561453022275290924980595 1:0.76976401 2:14.795889 #
0.0018184041561453022275290924980595 1:10.137241 2:3.1640489 #
-0.0018184041561453022275290924980595 1:9.2709608 2:2.751189 #
0.0018184041561453022275290924980595 1:2.0088551 2:15.931609 #
-0.0018184041561453022275290924980595 1:0.82670897 2:14.730271 #
0.0018184041561453022275290924980595 1:12.085707 2:1.7348861 #
-0.0018184041561453022275290924980595 1:8.2918777 2:4.6081729 #
0.0018184041561453022275290924980595 1:0.948847 2:18.103493 #
-0.0018184041561453022275290924980595 1:2.3851531 2:12.975829 #
0.0018184041561453022275290924980595 1:9.7020741 2:3.992049 #
-0.0018184041561453022275290924980595 1:8.6123934 2:3.310323 #
0.0018184041561453022275290924980595 1:5.2106142 2:9.9152069 #
-0.0018184041561453022275290924980595 1:3.3835249 2:11.837033 #
0.0018184041561453022275290924980595 1:8.8054857 2:5.0685692 #
-0.0018184041561453022275290924980595 1:8.6501055 2:3.1165929 #
0.0018184041561453022275290924980595 1:2.546025 2:14.982672 #
-0.0018184041561453022275290924980595 1:2.453038 2:12.711315 #
0.0018184041561453022275290924980595 1:10.162916 2:3.922075 #
-0.0018184041561453022275290924980595 1:8.8916197 2:2.4853849 #
0.0018184041561453022275290924980595 1:7.0623341 2:7.3524919 #
-0.0018184041561453022275290924980595 1:3.349463 2:11.635019 #
0.0018184041561453022275290924980595 1:7.4487462 2:7.1214328 #
-0.0018184041561453022275290924980595 1:8.3626404 2:3.222718 #
0.0018184041561453022275290924980595 1:6.404357 2:8.6284523 #
-0.0018184041561453022275290924980595 1:1.497473 2:13.383756 #
0.0018184041561453022275290924980595 1:7.3228588 2:7.9743571 #
-0.0018184041561453022275290924980595 1:9.8778563 2:0.111834 #
0.0018184041561453022275290924980595 1:0.72808701 2:18.622215 #
-0.0018184041561453022275290924980595 1:0.157291 2:14.210119 #
0.0018184041561453022275290924980595 1:14.371074 2:0.098993003 #
-0.0018184041561453022275290924980595 1:9.6834288 2:0.32284701 #
0.0018184041561453022275290924980595 1:4.6302481 2:11.747517 #
-0.0018184041561453022275290924980595 1:2.718055 2:11.73897 #
0.0018184041561453022275290924980595 1:9.4919643 2:5.1045761 #
-0.0018184041561453022275290924980595 1:6.1040478 2:6.2800322 #
0.0018184041561453022275290924980595 1:4.2114601 2:12.599813 #
-0.0018184041561453022275290924980595 1:3.7786231 2:9.7296658 #
0.0018184041561453022275290924980595 1:6.1571002 2:9.5741873 #
-0.0018184041561453022275290924980595 1:3.0668831 2:10.462688 #
0.0018184041561453022275290924980595 1:6.8164921 2:8.9520845 #
-0.0018184041561453022275290924980595 1:3.2231901 2:10.097698 #
0.0018184041561453022275290924980595 1:4.571661 2:12.270102 #
-0.0018184041561453022275290924980595 1:7.9298749 2:2.960645 #
0.0018184041561453022275290924980595 1:4.7723179 2:12.018635 #
-0.0018184041561453022275290924980595 1:1.649886 2:11.519673 #
0.0018184041561453022275290924980595 1:9.9385719 2:4.8438911 #
-0.0018184041561453022275290924980595 1:9.5114374 2:0.34740099 #
0.0018184041561453022275290924980595 1:5.2773089 2:11.655328 #
-0.0018184041561453022275290924980595 1:0.85505402 2:12.153948 #
0.0018184041561453022275290924980595 1:11.809817 2:2.8007679 #
-0.0018184041561453022275290924980595 1:7.4306951 2:3.3445611 #
0.0018184041561453022275290924980595 1:2.862319 2:15.518332 #
-0.0018184041561453022275290924980595 1:1.991828 2:10.682886 #
0.0018184041561453022275290924980595 1:13.100089 2:1.535289 #
-0.0018184041561453022275290924980595 1:5.5399241 2:5.783999 #
0.0018184041561453022275290924980595 1:6.1665969 2:10.396052 #
-0.0018184041561453022275290924980595 1:3.66768 2:8.6189461 #
0.0018184041561453022275290924980595 1:5.3969131 2:11.689189 #
-0.0018184041561453022275290924980595 1:2.0915489 2:10.238719 #
0.0018184041561453022275290924980595 1:9.7580423 2:5.3957729 #
-0.0018184041561453022275290924980595 1:7.3050122 2:2.7489531 #
0.0018184041561453022275290924980595 1:2.1635411 2:17.134281 #
-0.0018184041561453022275290924980595 1:2.217293 2:9.9123755 #
0.0018184041561453022275290924980595 1:9.5578327 2:5.8756819 #
-0.0018184041561453022275290924980595 1:5.4319611 2:5.0184751 #
0.0018184041561453022275290924980595 1:6.3611922 2:10.569963 #
-0.0018184041561453022275290924980595 1:4.1439919 2:6.6784582 #
0.0018184041561453022275290924980595 1:6.448257 2:10.470786 #
-0.0018184041561453022275290924980595 1:1.142451 2:10.424136 #
0.0018184041561453022275290924980595 1:12.862412 2:1.92897 #
-0.0018184041561453022275290924980595 1:7.2778649 2:2.033396 #
0.0018184041561453022275290924980595 1:4.2091789 2:13.82314 #
-0.0018184041561453022275290924980595 1:4.5475588 2:5.8979568 #
0.0018184041561453022275290924980595 1:10.412243 2:5.1733279 #
-0.0018184041561453022275290924980595 1:7.1406169 2:2.146637 #
0.0018184041561453022275290924980595 1:5.587923 2:12.017926 #
-0.0018184041561453022275290924980595 1:6.741075 2:2.527107 #
0.0018184041561453022275290924980595 1:3.343168 2:15.323738 #
-0.0018184041561453022275290924980595 1:0.66862798 2:10.643618 #
0.0018184041561453022275290924980595 1:8.4081125 2:8.1180944 #
-0.0018184041561453022275290924980595 1:2.598891 2:8.2186737 #
0.0018184041561453022275290924980595 1:5.5150328 2:12.137892 #
-0.0018184041561453022275290924980595 1:1.0452811 2:10.171985 #
0.0018184041561453022275290924980595 1:6.69172 2:10.74414 #
-0.0018184041561453022275290924980595 1:2.988826 2:7.4711008 #
0.0018184041561453022275290924980595 1:6.2222252 2:11.431552 #
-0.0018184041561453022275290924980595 1:4.4900842 2:5.3185792 #
0.0018184041561453022275290924980595 1:6.750082 2:10.707777 #
-0.0018184041561453022275290924980595 1:4.7620039 2:4.6527061 #
0.0018184041561453022275290924980595 1:11.642863 2:4.235599 #
-0.0018184041561453022275290924980595 1:8.134758 2:0.107142 #
0.0018184041561453022275290924980595 1:3.3673949 2:15.605575 #
-0.0018184041561453022275290924980595 1:0.171924 2:10.337491 #
0.0018184041561453022275290924980595 1:14.778021 2:0.377114 #
-0.0018184041561453022275290924980595 1:5.9227891 2:3.0456541 #
0.0018184041561453022275290924980595 1:4.3802309 2:14.281994 #
-0.0018184041561453022275290924980595 1:4.055511 2:5.1891842 #
0.0018184041561453022275290924980595 1:12.526525 2:3.19925 #
-0.0018184041561453022275290924980595 1:6.8783679 2:1.620922 #
0.0018184041561453022275290924980595 1:7.4629669 2:9.9973145 #
-0.0018184041561453022275290924980595 1:3.3598931 2:6.0362039 #
0.0018184041561453022275290924980595 1:13.03216 2:2.7963369 #
-0.0018184041561453022275290924980595 1:4.6198931 2:4.3230562 #
0.00088504276910857907108287623287879 1:2.837049 2:16.540863 #
0.0016112313891252852404711859435338 1:11.121183 2:5.381578 #
-0.00067787124305450363603853247695952 1:5.317153 2:3.2599859 #
