SVM-light Version V6.02
2 # kernel type
3 # kernel parameter -d 
0.1 # kernel parameter -g 
1 # kernel parameter -s 
1 # kernel parameter -r 
empty# kernel parameter -u 
2 # highest feature index 
1000 # number of training documents 
237 # number of support vectors plus 1 
0.50849754 # threshold b, each following line is a SV (starting with alpha*y)
-0.20885367654635850209743352934311 1:7.7999482 2:6.3762012 #
0.0083128764183908153417856823352849 1:22.574181 2:19.681396 #
0.50579142435514656828132729060599 1:15.479403 2:11.41184 #
0.27586385099273619259108158985327 1:17.772982 2:17.036175 #
-0.050656000946019789921148657185768 1:29.193127 2:22.864571 #
-0.033588704133384224281844154802457 1:27.104422 2:3.7905591 #
0.37117797123947904314178458662354 1:17.31398 2:18.183353 #
0.50579142435514656828132729060599 1:9.8203382 2:7.7149191 #
0.50579142435514656828132729060599 1:23.741369 2:16.299351 #
-0.16060660896962919430563943024026 1:26.149628 2:4.1531501 #
-0.50579142435514656828132729060599 1:5.258657 2:12.419818 #
0.50579142435514656828132729060599 1:23.692678 2:10.290604 #
-0.50579142435514656828132729060599 1:23.951517 2:10.149272 #
0.50579142435514656828132729060599 1:5.481205 2:13.300826 #
-0.50579142435514656828132729060599 1:25.213249 2:16.182934 #
0.50579142435514656828132729060599 1:15.118381 2:5.066555 #
-0.50579142435514656828132729060599 1:15.438922 2:4.628911 #
0.50579142435514656828132729060599 1:24.816084 2:15.479831 #
-0.50579142435514656828132729060599 1:4.7829828 2:15.020339 #
0.50579142435514656828132729060599 1:16.978584 2:5.6488371 #
-0.50579142435514656828132729060599 1:17.358526 2:4.889534 #
0.50579142435514656828132729060599 1:5.465137 2:15.246323 #
-0.50579142435514656828132729060599 1:4.455626 2:15.465668 #
0.50579142435514656828132729060599 1:22.105442 2:21.95616 #
-0.50579142435514656828132729060599 1:22.109653 2:22.102114 #
0.50579142435514656828132729060599 1:5.8436108 2:18.180319 #
-0.50579142435514656828132729060599 1:5.9145908 2:19.401733 #
0.50579142435514656828132729060599 1:19.921539 2:23.271219 #
-0.50579142435514656828132729060599 1:19.855778 2:24.139608 #
0.50579142435514656828132729060599 1:7.7309022 2:21.023808 #
-0.50579142435514656828132729060599 1:7.3961139 2:21.690748 #
0.50579142435514656828132729060599 1:17.514193 2:24.524908 #
-0.50579142435514656828132729060599 1:17.442116 2:24.697977 #
0.50579142435514656828132729060599 1:5.469615 2:14.77618 #
-0.50579142435514656828132729060599 1:4.7590718 2:16.930372 #
0.50579142435514656828132729060599 1:8.2136126 2:21.916792 #
-0.50579142435514656828132729060599 1:7.8752532 2:22.567928 #
0.50579142435514656828132729060599 1:6.0148268 2:18.478563 #
-0.50579142435514656828132729060599 1:5.660162 2:19.363499 #
0.50579142435514656828132729060599 1:9.2382526 2:7.0283418 #
-0.50579142435514656828132729060599 1:8.9286795 2:6.4982762 #
0.50579142435514656828132729060599 1:6.2386169 2:17.643448 #
-0.50579142435514656828132729060599 1:5.1156049 2:17.806442 #
0.50579142435514656828132729060599 1:18.61087 2:23.788994 #
-0.50579142435514656828132729060599 1:17.546701 2:24.756727 #
0.50579142435514656828132729060599 1:21.720764 2:8.4026365 #
-0.50579142435514656828132729060599 1:21.077366 2:6.9092679 #
0.50579142435514656828132729060599 1:16.158434 2:24.187296 #
-0.50579142435514656828132729060599 1:15.449126 2:25.105007 #
0.50579142435514656828132729060599 1:18.552259 2:6.9959679 #
-0.50579142435514656828132729060599 1:18.885864 2:5.7306838 #
0.50579142435514656828132729060599 1:13.880399 2:24.366323 #
-0.50579142435514656828132729060599 1:12.764053 2:25.086691 #
0.50579142435514656828132729060599 1:20.14039 2:7.6143918 #
-0.50579142435514656828132729060599 1:23.254602 2:9.2090578 #
0.12673605372821761250179406488314 1:13.990611 2:11.528364 #
-0.50579142435514656828132729060599 1:20.624783 2:23.861856 #
0.50579142435514656828132729060599 1:24.288145 2:12.284814 #
-0.50579142435514656828132729060599 1:24.723488 2:12.453894 #
0.50579142435514656828132729060599 1:21.004766 2:22.577377 #
-0.50579142435514656828132729060599 1:22.783794 2:21.588608 #
0.50579142435514656828132729060599 1:24.212177 2:12.41352 #
-0.50579142435514656828132729060599 1:25.598583 2:14.140971 #
0.50579142435514656828132729060599 1:23.152412 2:19.910374 #
-0.50579142435514656828132729060599 1:24.297998 2:18.93158 #
0.50579142435514656828132729060599 1:9.2397242 2:23.042322 #
-0.50579142435514656828132729060599 1:9.6015911 2:24.743818 #
0.50579142435514656828132729060599 1:23.307737 2:19.344381 #
-0.50579142435514656828132729060599 1:23.214302 2:21.28484 #
0.50579142435514656828132729060599 1:12.171611 2:24.340803 #
-0.50579142435514656828132729060599 1:11.770865 2:25.350391 #
0.50579142435514656828132729060599 1:21.580523 2:22.079159 #
-0.50579142435514656828132729060599 1:6.0242052 2:10.072622 #
0.50579142435514656828132729060599 1:8.6221619 2:7.4348192 #
-0.50579142435514656828132729060599 1:7.8697562 2:6.7172952 #
0.50579142435514656828132729060599 1:7.183291 2:10.246915 #
-0.50579142435514656828132729060599 1:7.860466 2:7.713099 #
0.50579142435514656828132729060599 1:24.805058 2:15.466718 #
-0.50579142435514656828132729060599 1:24.715605 2:18.049665 #
0.50579142435514656828132729060599 1:8.3777161 2:7.9508262 #
-0.50579142435514656828132729060599 1:12.402238 2:5.1230011 #
0.50579142435514656828132729060599 1:23.177732 2:19.641558 #
-0.50579142435514656828132729060599 1:23.078758 2:21.735004 #
0.50579142435514656828132729060599 1:13.095276 2:6.4957132 #
-0.50579142435514656828132729060599 1:24.39163 2:11.065118 #
0.032476305373883240790178206225391 1:12.581711 2:15.786707 #
-0.50579142435514656828132729060599 1:6.0293531 2:9.7879639 #
0.50579142435514656828132729060599 1:22.753832 2:10.834623 #
-0.50579142435514656828132729060599 1:7.4887848 2:21.971222 #
0.50579142435514656828132729060599 1:8.1546469 2:8.2233906 #
-0.50579142435514656828132729060599 1:7.7591949 2:6.524682 #
0.50579142435514656828132729060599 1:7.9744411 2:20.861416 #
-0.50579142435514656828132729060599 1:25.822956 2:14.94315 #
0.50579142435514656828132729060599 1:8.099966 2:8.3954515 #
-0.50579142435514656828132729060599 1:6.936832 2:7.9582362 #
0.50579142435514656828132729060599 1:24.542795 2:14.833501 #
-0.3918256697767750207361814318574 1:29.318724 2:0.210041 #
0.50579142435514656828132729060599 1:16.209923 2:5.7670679 #
-0.50579142435514656828132729060599 1:15.588563 2:4.5818372 #
0.50579142435514656828132729060599 1:6.6591282 2:17.926142 #
-0.50579142435514656828132729060599 1:18.802998 2:5.3984289 #
0.50579142435514656828132729060599 1:21.938244 2:21.051826 #
-0.50579142435514656828132729060599 1:22.589148 2:22.619625 #
0.50579142435514656828132729060599 1:14.769033 2:5.9104648 #
-0.50579142435514656828132729060599 1:14.283539 2:4.4665542 #
0.50579142435514656828132729060599 1:7.805912 2:9.2858944 #
-0.26051789796821389622039077949012 1:0.67460698 2:0.88104802 #
0.50579142435514656828132729060599 1:20.507992 2:22.765902 #
-0.50579142435514656828132729060599 1:4.7552242 2:17.244953 #
0.50579142435514656828132729060599 1:18.570429 2:7.382163 #
-0.50579142435514656828132729060599 1:23.616774 2:8.9579105 #
0.50579142435514656828132729060599 1:5.5751109 2:13.401572 #
-0.50579142435514656828132729060599 1:4.516655 2:11.858725 #
0.50579142435514656828132729060599 1:21.664625 2:9.3109722 #
-0.1840980973264610132122953700673 1:7.024488 2:0.225262 #
0.50579142435514656828132729060599 1:15.003254 2:23.620003 #
-0.50579142435514656828132729060599 1:15.376373 2:25.384613 #
0.50579142435514656828132729060599 1:8.3944302 2:21.167982 #
-0.015724785176907899592047002101936 1:26.640022 2:26.438801 #
-0.10105865337926064895235356289049 1:3.1213231 2:3.504508 #
-0.50579142435514656828132729060599 1:6.292347 2:22.134228 #
0.50579142435514656828132729060599 1:23.363777 2:11.761352 #
-0.50579142435514656828132729060599 1:24.664898 2:11.257394 #
0.50579142435514656828132729060599 1:16.870729 2:23.324368 #
-0.50579142435514656828132729060599 1:18.017431 2:25.354624 #
0.50579142435514656828132729060599 1:6.6652188 2:17.459381 #
-0.087573050433592869445931228256086 1:29.965834 2:5.4604611 #
0.50579142435514656828132729060599 1:12.550243 2:7.1240201 #
-0.12124585214118047127307420396392 1:10.901204 2:5.0007901 #
0.50579142435514656828132729060599 1:23.308334 2:18.582251 #
-0.50579142435514656828132729060599 1:24.462425 2:19.414577 #
0.43406058241270273345691066424479 1:14.662336 2:18.579592 #
-0.29805531032701831906095435442694 1:0.32916999 2:6.7640448 #
0.50579142435514656828132729060599 1:12.131012 2:23.254677 #
-0.50579142435514656828132729060599 1:10.819172 2:24.947496 #
0.50579142435514656828132729060599 1:22.659828 2:19.894625 #
-0.50579142435514656828132729060599 1:23.718006 2:21.120375 #
0.50579142435514656828132729060599 1:5.9529929 2:13.474065 #
-0.50579142435514656828132729060599 1:4.226666 2:15.456268 #
0.50579142435514656828132729060599 1:23.689066 2:12.684962 #
-0.50579142435514656828132729060599 1:26.044138 2:14.494492 #
0.50579142435514656828132729060599 1:15.921474 2:6.3450322 #
-0.50579142435514656828132729060599 1:16.39871 2:4.6813588 #
0.50579142435514656828132729060599 1:24.410343 2:15.033301 #
-0.052603433577594956027656536434733 1:0.31347999 2:8.4610767 #
0.50579142435514656828132729060599 1:19.62163 2:23.262543 #
-0.38338368409515227730466335742676 1:21.195364 2:25.067694 #
0.50579142435514656828132729060599 1:8.2220278 2:8.5309153 #
-0.50579142435514656828132729060599 1:6.7648349 2:7.6421199 #
0.45232444011122052707207785715582 1:11.087143 2:13.906403 #
-0.50579142435514656828132729060599 1:22.319336 2:6.3100019 #
0.092886277312943701933711793117254 1:17.382927 2:11.576489 #
-0.21827075996798650514563178148819 1:29.841932 2:27.931801 #
0.50579142435514656828132729060599 1:20.511812 2:8.0070791 #
-0.27405678259834553855966987612192 1:9.1690531 2:29.917351 #
0.50579142435514656828132729060599 1:5.874167 2:14.264328 #
-0.20146560901081458916372923795279 1:4.0817528 2:11.887308 #
0.50579142435514656828132729060599 1:22.689852 2:19.606915 #
-0.50579142435514656828132729060599 1:25.635744 2:17.441278 #
0.080494041155368567519445832658675 1:10.46363 2:7.5848851 #
-0.15572182479592622250663680461003 1:16.776104 2:29.996202 #
-0.4042066520395349860095279836969 1:0.46084401 2:29.586487 #
0.14622635484923240944965527887689 1:11.753219 2:22.847292 #
-0.50579142435514656828132729060599 1:10.384532 2:5.1861119 #
0.24533537147287290403063764188119 1:18.367971 2:12.855805 #
-0.50579142435514656828132729060599 1:25.75691 2:12.818052 #
0.11907669985886758234894244878888 1:19.056852 2:16.172915 #
-0.2983505940695350133751162502449 1:21.718632 2:29.502327 #
0.50579142435514656828132729060599 1:24.237249 2:14.909839 #
0.50579142435514656828132729060599 1:16.457298 2:23.271095 #
-0.50579142435514656828132729060599 1:17.67919 2:25.34148 #
0.50579142435514656828132729060599 1:13.329622 2:6.9480739 #
-0.50579142435514656828132729060599 1:13.028337 2:4.642323 #
0.32082481984256278062517253601982 1:17.989378 2:23.297983 #
-0.18264722245640632736218833542807 1:0.062398002 2:15.01796 #
-0.19111056743534904356351944443304 1:29.945721 2:11.370745 #
0.50579142435514656828132729060599 1:10.454341 2:22.217661 #
-0.50579142435514656828132729060599 1:22.876909 2:22.804153 #
-0.40781561352381612284290213210625 1:19.742117 2:5.274991 #
0.50579142435514656828132729060599 1:21.415094 2:21.725367 #
0.18393352198856466328535930188082 1:20.665899 2:8.2253647 #
0.18279708645865652694162406532996 1:7.5459762 2:19.033445 #
-0.35734731334700797766856794623891 1:25.524488 2:12.04914 #
-0.15920256440968624800369468630379 1:10.604805 2:0.25405499 #
-0.058253376218166452726876514134347 1:0.48156399 2:24.564814 #
-0.037544420911778675353787093627034 1:17.625931 2:0.45995399 #
0.50579142435514656828132729060599 1:7.418314 2:11.35235 #
-0.3553788662504577255951687675406 1:5.7306461 2:9.8439465 #
-0.2213101850063001196922130020539 1:8.1258163 2:24.14069 #
-0.20334977895997802255223518841376 1:13.899784 2:29.871319 #
-0.21829776375177986635911508983554 1:0.187811 2:11.316409 #
-0.091427792292752677050238219180756 1:15.334617 2:0.48751101 #
0.30947830020117278460034526688105 1:23.036905 2:11.987677 #
-0.0015336711813333527530678335182301 1:3.549464 2:3.2167151 #
-0.22142907221349633628548758679244 1:26.055773 2:16.503483 #
-0.055574631015599090799739201429475 1:26.046612 2:0.101091 #
-0.24719541806052558463591140025528 1:29.811241 2:20.359919 #
-0.1921650837283305213176731740532 1:29.78182 2:4.664557 #
0.1069629949636010241009742571805 1:15.912431 2:6.8728881 #
-0.32525770897671801851203099431586 1:5.5502558 2:29.813251 #
-0.2816003981947425294229958581127 1:29.301975 2:24.760708 #
-0.28327463284882847815993045514915 1:0.160897 2:19.830898 #
-0.13143272131621167031489960663748 1:24.821054 2:19.981485 #
-0.29342940441520126704233462078264 1:24.567556 2:0.151274 #
-0.064579626585641605740484294528869 1:29.778755 2:18.349283 #
0.072589201185555576878449812738836 1:6.206707 2:14.05367 #
-0.23295142527826973033455715267337 1:5.044024 2:0.39666 #
-0.23399872613848932134672509164375 1:29.613312 2:7.6619668 #
-0.20390987014214784212029485388484 1:3.1702549 2:26.641642 #
-0.17663194519540037497051798709435 1:16.471972 2:25.569529 #
0.24528426157270472041105335847533 1:18.773409 2:14.981225 #
0.3258802417494763847827243807842 1:12.486671 2:23.085287 #
-0.26102837967551562048384994341177 1:28.171852 2:29.924335 #
-0.31454909826439619857652019163652 1:20.639931 2:0.046438999 #
-0.17779093796234712865356186739518 1:0.142032 2:3.359978 #
-0.0076622388236032845654222001030575 1:22.817635 2:6.2162018 #
-0.10502839213713954791273863520473 1:22.936277 2:22.80035 #
-0.056079993677508044314095059235115 1:12.73363 2:26.037813 #
0.25973416601003068704400789101783 1:18.277472 2:13.57453 #
0.4503890905436635505587616989942 1:11.167273 2:16.708372 #
0.11570612737127644598089659666584 1:23.831041 2:16.022741 #
-0.00039785114394774723223235923796892 1:3.164362 2:25.505518 #
0.029173093166577339363509935310503 1:18.611971 2:15.229005 #
0.19746576495197495915157048784749 1:19.806023 2:7.7669039 #
-0.30627628302012066541237800265662 1:0.055004999 2:23.691307 #
0.21179298736245261158828157022072 1:13.114307 2:18.532722 #
-0.016243355023916650897719549107023 1:1.026682 2:26.807032 #
0.06521457602797121888560383240474 1:12.967969 2:16.314201 #
0.44026491050325955445288172995788 1:12.519722 2:12.442875 #
0.028786444691093607262111220279621 1:14.798647 2:15.843863 #
0.10874287564088098989589781240284 1:12.575497 2:18.486656 #
0.38985843549756432624420199317683 1:15.085494 2:14.953039 #
-0.22452104516816104307075363522017 1:25.434422 2:28.774824 #
-0.1083906178676156545348518989158 1:10.017358 2:0.21262001 #
-0.072430324722864480868622649722965 1:1.837014 2:0.47080699 #
-0.0010605792300322402967743817825408 1:3.6864591 2:12.298154 #
